digraph Tree {
node [shape=box] ;
0 [label="kantor <= 0.5\nentropy = 0.989\nsamples = 16\nvalue = [7, 9]\nclass = gaji>10"] ;
1 [label="entropy = 0.0\nsamples = 6\nvalue = [0, 6]\nclass = gaji>10"] ;
0 -> 1 [labeldistance=2.5, labelangle=45, headlabel="True"] ;
2 [label="titel <= 0.5\nentropy = 0.881\nsamples = 10\nvalue = [7, 3]\nclass = gaji<10"] ;
0 -> 2 [labeldistance=2.5, labelangle=-45, headlabel="False"] ;
3 [label="entropy = 0.0\nsamples = 5\nvalue = [5, 0]\nclass = gaji<10"] ;
2 -> 3 ;
4 [label="kantor <= 1.5\nentropy = 0.971\nsamples = 5\nvalue = [2, 3]\nclass = gaji>10"] ;
2 -> 4 ;
5 [label="job <= 0.5\nentropy = 0.918\nsamples = 3\nvalue = [2, 1]\nclass = gaji<10"] ;
4 -> 5 ;
6 [label="entropy = 0.0\nsamples = 1\nvalue = [0, 1]\nclass = gaji>10"] ;
5 -> 6 ;
7 [label="entropy = 0.0\nsamples = 2\nvalue = [2, 0]\nclass = gaji<10"] ;
5 -> 7 ;
8 [label="entropy = 0.0\nsamples = 2\nvalue = [0, 2]\nclass = gaji>10"] ;
4 -> 8 ;
}